<?xml version="1.0"?>
<opencv_storage>
<stage8>
  <maxWeakCount>8</maxWeakCount>
  <stageThreshold>-1.5065767765045166e+00</stageThreshold>
  <weakClassifiers>
    <_>
      <internalNodes>
        0 -1 89540 -1.3283458538353443e-02</internalNodes>
      <leafValues>
        -8.4369117021560669e-01 -1.0526315867900848e-01</leafValues></_>
    <_>
      <internalNodes>
        0 -1 111361 -3.8528838194906712e-03</internalNodes>
      <leafValues>
        6.2196969985961914e-02 -5.5399334430694580e-01</leafValues></_>
    <_>
      <internalNodes>
        0 -1 60733 -1.5910840034484863e-01</internalNodes>
      <leafValues>
        8.4174036979675293e-02 -6.9737499952316284e-01</leafValues></_>
    <_>
      <internalNodes>
        0 -1 94356 -8.3413079380989075e-02</internalNodes>
      <leafValues>
        -3.0943983793258667e-01 2.8585693240165710e-01</leafValues></_>
    <_>
      <internalNodes>
        0 -1 78676 4.1467016562819481e-03</internalNodes>
      <leafValues>
        -2.0617106556892395e-01 5.6121546030044556e-01</leafValues></_>
    <_>
      <internalNodes>
        0 -1 158057 1.5503643080592155e-02</internalNodes>
      <leafValues>
        2.0421031117439270e-01 -5.1738196611404419e-01</leafValues></_>
    <_>
      <internalNodes>
        0 -1 71708 7.8779924660921097e-03</internalNodes>
      <leafValues>
        -2.3175477981567383e-01 4.1153877973556519e-01</leafValues></_>
    <_>
      <internalNodes>
        0 -1 111659 5.7046259753406048e-03</internalNodes>
      <leafValues>
        -1.6690894961357117e-01 5.2048730850219727e-01</leafValues></_></weakClassifiers></stage8>
</opencv_storage>
