<?xml version="1.0"?>
<opencv_storage>
<stage4>
  <maxWeakCount>10</maxWeakCount>
  <stageThreshold>-1.6629046201705933e+00</stageThreshold>
  <weakClassifiers>
    <_>
      <internalNodes>
        0 -1 83734 -2.1158615127205849e-03</internalNodes>
      <leafValues>
        -8.3256667852401733e-01 3.8461539149284363e-01</leafValues></_>
    <_>
      <internalNodes>
        0 -1 123586 1.8630055710673332e-03</internalNodes>
      <leafValues>
        -5.7193654775619507e-01 3.6661442369222641e-02</leafValues></_>
    <_>
      <internalNodes>
        0 -1 44400 -2.0080741494894028e-02</internalNodes>
      <leafValues>
        -5.0056815147399902e-01 1.6443330049514771e-01</leafValues></_>
    <_>
      <internalNodes>
        0 -1 10092 1.4581424184143543e-03</internalNodes>
      <leafValues>
        -2.5032219290733337e-01 4.2285427451133728e-01</leafValues></_>
    <_>
      <internalNodes>
        0 -1 110101 -4.9147820100188255e-03</internalNodes>
      <leafValues>
        4.0098348259925842e-01 -2.3010392487049103e-01</leafValues></_>
    <_>
      <internalNodes>
        0 -1 49236 1.9034173339605331e-02</internalNodes>
      <leafValues>
        -1.0380341112613678e-01 6.5453982353210449e-01</leafValues></_>
    <_>
      <internalNodes>
        0 -1 84773 -1.7795036546885967e-03</internalNodes>
      <leafValues>
        4.8801496624946594e-01 -2.0236119627952576e-01</leafValues></_>
    <_>
      <internalNodes>
        0 -1 146861 2.4203532375395298e-03</internalNodes>
      <leafValues>
        -1.9536596536636353e-01 4.5856297016143799e-01</leafValues></_>
    <_>
      <internalNodes>
        0 -1 82673 -2.1275877952575684e-02</internalNodes>
      <leafValues>
        6.1341100931167603e-01 -1.4999048411846161e-01</leafValues></_>
    <_>
      <internalNodes>
        0 -1 13558 -1.3245007721707225e-03</internalNodes>
      <leafValues>
        -5.3057289123535156e-01 1.9766519963741302e-01</leafValues></_></weakClassifiers></stage4>
</opencv_storage>
